<?xml version="1.0"?>
<opencv_storage>
<cascade>
  <stageType>BOOST</stageType>
  <featureType>HAAR</featureType>
  <height>36</height>
  <width>18</width>
  <stageParams>
    <boostType>GAB</boostType>
    <minHitRate>9.9500000476837158e-01</minHitRate>
    <maxFalseAlarm>5.0000000000000000e-01</maxFalseAlarm>
    <weightTrimRate>9.4999999999999996e-01</weightTrimRate>
    <maxDepth>1</maxDepth>
    <maxWeakCount>100</maxWeakCount></stageParams>
  <featureParams>
    <maxCatCount>0</maxCatCount>
    <featSize>1</featSize>
    <mode>BASIC</mode></featureParams>
  <stageNum>10</stageNum>
  <stages>
    <!-- stage 0 -->
    <_>
      <maxWeakCount>7</maxWeakCount>
      <stageThreshold>-1.1572978496551514e+00</stageThreshold>
      <weakClassifiers>
        <_>
          <internalNodes>
            0 -1 12 9.3015525490045547e-03</internalNodes>
          <leafValues>
            -5.3846156597137451e-01 7.7695167064666748e-01</leafValues></_>
        <_>
          <internalNodes>
            0 -1 60 -2.5289991754107177e-04</internalNodes>
          <leafValues>
            5.8163595199584961e-01 -6.6304087638854980e-01</leafValues></_>
        <_>
          <internalNodes>
            0 -1 43 -3.6936658434569836e-03</internalNodes>
          <leafValues>
            4.0315166115760803e-01 -7.0064586400985718e-01</leafValues></_>
        <_>
          <internalNodes>
            0 -1 41 -1.5178790781646967e-03</internalNodes>
          <leafValues>
            4.0985321998596191e-01 -5.9919017553329468e-01</leafValues></_>
        <_>
          <internalNodes>
            0 -1 36 -1.1704571079462767e-03</internalNodes>
          <leafValues>
            7.0827251672744751e-01 -3.6146563291549683e-01</leafValues></_>
        <_>
          <internalNodes>
            0 -1 68 -3.0900049023330212e-04</internalNodes>
          <leafValues>
            3.8124006986618042e-01 -6.1609411239624023e-01</leafValues></_>
        <_>
          <internalNodes>
            0 -1 42 -4.2439654469490051e-02</internalNodes>
          <leafValues>
            -8.8630443811416626e-01 3.1522282958030701e-01</leafValues></_></weakClassifiers></_>
    <!-- stage 1 -->
    <_>
      <maxWeakCount>8</maxWeakCount>
      <stageThreshold>-1.0965921878814697e+00</stageThreshold>
      <weakClassifiers>
        <_>
          <internalNodes>
            0 -1 13 7.8434729948639870e-03</internalNodes>
          <leafValues>
            -4.4554454088211060e-01 7.0383912324905396e-01</leafValues></_>
        <_>
          <internalNodes>
            0 -1 79 -2.4005481973290443e-03</internalNodes>
          <leafValues>
            3.7438306212425232e-01 -7.5455164909362793e-01</leafValues></_>
        <_>
          <internalNodes>
            0 -1 75 -1.0352504905313253e-03</internalNodes>
          <leafValues>
            5.0095653533935547e-01 -5.3556418418884277e-01</leafValues></_>
        <_>
          <internalNodes>
            0 -1 85 -1.2789429165422916e-03</internalNodes>
          <leafValues>
            4.5430141687393188e-01 -4.5004510879516602e-01</leafValues></_>
        <_>
          <internalNodes>
            0 -1 0 8.5737630724906921e-02</internalNodes>
          <leafValues>
            -2.3503582179546356e-01 8.5276186466217041e-01</leafValues></_>
        <_>
          <internalNodes>
            0 -1 29 7.1265548467636108e-04</internalNodes>
          <leafValues>
            2.0448648929595947e-01 -9.0044128894805908e-01</leafValues></_>
        <_>
          <internalNodes>
            0 -1 10 -1.6053067520260811e-03</internalNodes>
          <leafValues>
            5.9070384502410889e-01 -3.3190071582794189e-01</leafValues></_>
        <_>
          <internalNodes>
            0 -1 91 -9.4781295047141612e-05</internalNodes>
          <leafValues>
            3.2262870669364929e-01 -5.9864413738250732e-01</leafValues></_></weakClassifiers></_>
    <!-- stage 2 -->
    <_>
      <maxWeakCount>10</maxWeakCount>
      <stageThreshold>-9.8794066905975342e-01</stageThreshold>
      <weakClassifiers>
        <_>
          <internalNodes>
            0 -1 35 -4.8596394481137395e-04</internalNodes>
          <leafValues>
            5.6937801837921143e-01 -4.7982063889503479e-01</leafValues></_>
        <_>
          <internalNodes>
            0 -1 25 -1.0738798882812262e-03</internalNodes>
          <leafValues>
            4.9116164445877075e-01 -4.6440500020980835e-01</leafValues></_>
        <_>
          <internalNodes>
            0 -1 94 -1.2156370794400573e-03</internalNodes>
          <leafValues>
            4.1891792416572571e-01 -4.8503208160400391e-01</leafValues></_>
        <_>
          <internalNodes>
            0 -1 97 -3.5598973045125604e-04</internalNodes>
          <leafValues>
            4.3418455123901367e-01 -4.2862623929977417e-01</leafValues></_>
        <_>
          <internalNodes>
            0 -1 40 -8.5423979908227921e-04</internalNodes>
          <leafValues>
            3.6299136281013489e-01 -4.7644191980361938e-01</leafValues></_>
        <_>
          <internalNodes>
            0 -1 48 -6.8007895606569946e-05</internalNodes>
          <leafValues>
            2.2055357694625854e-01 -6.8943953514099121e-01</leafValues></_>
        <_>
          <internalNodes>
            0 -1 57 1.1842184903798625e-04</internalNodes>
          <leafValues>
            2.0074953138828278e-01 -7.4292725324630737e-01</leafValues></_>
        <_>
          <internalNodes>
            0 -1 61 -1.7300450417678803e-04</internalNodes>
          <leafValues>
            4.7069203853607178e-01 -3.5968253016471863e-01</leafValues></_>
        <_>
          <internalNodes>
            0 -1 66 -3.6238363827578723e-04</internalNodes>
          <leafValues>
            2.7926808595657349e-01 -6.0650634765625000e-01</leafValues></_>
        <_>
          <internalNodes>
            0 -1 87 2.1045857283752412e-04</internalNodes>
          <leafValues>
            1.9808560609817505e-01 -7.3783808946609497e-01</leafValues></_></weakClassifiers></_>
    <!-- stage 3 -->
    <_>
      <maxWeakCount>9</maxWeakCount>
      <stageThreshold>-7.7396702766418457e-01</stageThreshold>
      <weakClassifiers>
        <_>
          <internalNodes>
            0 -1 71 5.3544924594461918e-04</internalNodes>
          <leafValues>
            -4.4939270615577698e-01 5.9867328405380249e-01</leafValues></_>
        <_>
          <internalNodes>
            0 -1 3 4.5233964920043945e-02</internalNodes>
          <leafValues>
            -3.1223067641258240e-01 7.1284109354019165e-01</leafValues></_>
        <_>
          <internalNodes>
            0 -1 51 -9.9518848583102226e-04</internalNodes>
          <leafValues>
            4.3309402465820312e-01 -4.4257164001464844e-01</leafValues></_>
        <_>
          <internalNodes>
            0 -1 30 3.6925605963915586e-03</internalNodes>
          <leafValues>
            1.5526923537254333e-01 -9.0806180238723755e-01</leafValues></_>
        <_>
          <internalNodes>
            0 -1 76 -5.1575582474470139e-03</internalNodes>
          <leafValues>
            5.1450312137603760e-01 -2.9766076803207397e-01</leafValues></_>
        <_>
          <internalNodes>
            0 -1 99 1.7691634129732847e-03</internalNodes>
          <leafValues>
            -2.8125342726707458e-01 5.2663564682006836e-01</leafValues></_>
        <_>
          <internalNodes>
            0 -1 17 -4.8238303512334824e-02</internalNodes>
          <leafValues>
            -9.1785466670989990e-01 1.3611561059951782e-01</leafValues></_>
        <_>
          <internalNodes>
            0 -1 62 3.3256030292250216e-04</internalNodes>
          <leafValues>
            -2.7909836173057556e-01 5.8990675210952759e-01</leafValues></_>
        <_>
          <internalNodes>
            0 -1 65 1.3254221528768539e-02</internalNodes>
          <leafValues>
            1.9487094879150391e-01 -9.3241190910339355e-01</leafValues></_></weakClassifiers></_>
    <!-- stage 4 -->
    <_>
      <maxWeakCount>10</maxWeakCount>
      <stageThreshold>-8.6913764476776123e-01</stageThreshold>
      <weakClassifiers>
        <_>
          <internalNodes>
            0 -1 7 2.3881591856479645e-02</internalNodes>
          <leafValues>
            -1.8518517911434174e-01 7.3033708333969116e-01</leafValues></_>
        <_>
          <internalNodes>
            0 -1 1 3.3599317073822021e-02</internalNodes>
          <leafValues>
            -2.5867494940757751e-01 6.8918454647064209e-01</leafValues></_>
        <_>
          <internalNodes>
            0 -1 74 -6.3298699387814850e-05</internalNodes>
          <leafValues>
            3.0985680222511292e-01 -5.8585768938064575e-01</leafValues></_>
        <_>
          <internalNodes>
            0 -1 70 -7.3597314767539501e-03</internalNodes>
          <leafValues>
            -8.7637454271316528e-01 1.6464358568191528e-01</leafValues></_>
        <_>
          <internalNodes>
            0 -1 95 -7.5434253085404634e-04</internalNodes>
          <leafValues>
            4.2565569281578064e-01 -3.8812503218650818e-01</leafValues></_>
        <_>
          <internalNodes>
            0 -1 19 -1.9901380874216557e-03</internalNodes>
          <leafValues>
            4.7782093286514282e-01 -2.8783878684043884e-01</leafValues></_>
        <_>
          <internalNodes>
            0 -1 83 -1.6467045992612839e-02</internalNodes>
          <leafValues>
            -6.0296219587326050e-01 2.3060745000839233e-01</leafValues></_>
        <_>
          <internalNodes>
            0 -1 50 5.0240807468071580e-04</internalNodes>
          <leafValues>
            1.8317928910255432e-01 -7.9240477085113525e-01</leafValues></_>
        <_>
          <internalNodes>
            0 -1 58 3.0834817152936012e-05</internalNodes>
          <leafValues>
            -5.3124016523361206e-01 2.2394362092018127e-01</leafValues></_>
        <_>
          <internalNodes>
            0 -1 57 -4.1035877075046301e-05</internalNodes>
          <leafValues>
            2.4409443140029907e-01 -5.3455513715744019e-01</leafValues></_></weakClassifiers></_>
    <!-- stage 5 -->
    <_>
      <maxWeakCount>13</maxWeakCount>
      <stageThreshold>-1.1098749637603760e+00</stageThreshold>
      <weakClassifiers>
        <_>
          <internalNodes>
            0 -1 23 -1.8148785457015038e-03</internalNodes>
          <leafValues>
            6.1977183818817139e-01 -2.3456789553165436e-01</leafValues></_>
        <_>
          <internalNodes>
            0 -1 9 2.7541149407625198e-02</internalNodes>
          <leafValues>
            -2.1671183407306671e-01 6.7151576280593872e-01</leafValues></_>
        <_>
          <internalNodes>
            0 -1 8 3.5942699760198593e-03</internalNodes>
          <leafValues>
            -3.8440361618995667e-01 3.6321452260017395e-01</leafValues></_>
        <_>
          <internalNodes>
            0 -1 66 -3.9067291072569788e-04</internalNodes>
          <leafValues>
            2.3431494832038879e-01 -5.7909345626831055e-01</leafValues></_>
        <_>
          <internalNodes>
            0 -1 26 8.4993336349725723e-03</internalNodes>
          <leafValues>
            1.6235721111297607e-01 -7.0658922195434570e-01</leafValues></_>
        <_>
          <internalNodes>
            0 -1 21 4.5841820538043976e-03</internalNodes>
          <leafValues>
            1.2836292386054993e-01 -8.8188427686691284e-01</leafValues></_>
        <_>
          <internalNodes>
            0 -1 16 -1.2713376432657242e-02</internalNodes>
          <leafValues>
            8.0762284994125366e-01 -1.9011127948760986e-01</leafValues></_>
        <_>
          <internalNodes>
            0 -1 98 -1.0219276009593159e-04</internalNodes>
          <leafValues>
            3.2358515262603760e-01 -4.0541291236877441e-01</leafValues></_>
        <_>
          <internalNodes>
            0 -1 32 -1.9030932337045670e-02</internalNodes>
          <leafValues>
            -7.5508862733840942e-01 1.7100369930267334e-01</leafValues></_>
        <_>
          <internalNodes>
            0 -1 6 9.4762938097119331e-03</internalNodes>
          <leafValues>
            -2.1766135096549988e-01 6.3490897417068481e-01</leafValues></_>
        <_>
          <internalNodes>
            0 -1 52 -1.1784114176407456e-03</internalNodes>
          <leafValues>
            3.8913536071777344e-01 -3.4595823287963867e-01</leafValues></_>
        <_>
          <internalNodes>
            0 -1 54 2.1418093238025904e-03</internalNodes>
          <leafValues>
            -4.3163517117500305e-01 3.0541664361953735e-01</leafValues></_>
        <_>
          <internalNodes>
            0 -1 15 1.8429288174957037e-03</internalNodes>
          <leafValues>
            -2.4846862256526947e-01 5.8138668537139893e-01</leafValues></_></weakClassifiers></_>
    <!-- stage 6 -->
    <_>
      <maxWeakCount>10</maxWeakCount>
      <stageThreshold>-1.0560768842697144e+00</stageThreshold>
      <weakClassifiers>
        <_>
          <internalNodes>
            0 -1 80 -2.4750437587499619e-03</internalNodes>
          <leafValues>
            5.6422764062881470e-01 -4.1276594996452332e-01</leafValues></_>
        <_>
          <internalNodes>
            0 -1 75 -2.2339164279401302e-03</internalNodes>
          <leafValues>
            5.0536233186721802e-01 -3.5572358965873718e-01</leafValues></_>
        <_>
          <internalNodes>
            0 -1 14 8.0078504979610443e-03</internalNodes>
          <leafValues>
            -3.3174952864646912e-01 4.5789596438407898e-01</leafValues></_>
        <_>
          <internalNodes>
            0 -1 44 -2.1846075833309442e-04</internalNodes>
          <leafValues>
            2.3159076273441315e-01 -6.4789897203445435e-01</leafValues></_>
        <_>
          <internalNodes>
            0 -1 90 -2.5052705779671669e-02</internalNodes>
          <leafValues>
            5.5329722166061401e-01 -2.4672558903694153e-01</leafValues></_>
        <_>
          <internalNodes>
            0 -1 45 -4.5080352574586868e-03</internalNodes>
          <leafValues>
            -7.6892995834350586e-01 1.4848336577415466e-01</leafValues></_>
        <_>
          <internalNodes>
            0 -1 49 -5.0658057443797588e-04</internalNodes>
          <leafValues>
            2.0339983701705933e-01 -5.8877301216125488e-01</leafValues></_>
        <_>
          <internalNodes>
            0 -1 77 -3.3666717354208231e-04</internalNodes>
          <leafValues>
            4.9158957600593567e-01 -2.7477005124092102e-01</leafValues></_>
        <_>
          <internalNodes>
            0 -1 81 -5.9153605252504349e-03</internalNodes>
          <leafValues>
            3.2325863838195801e-01 -3.6572003364562988e-01</leafValues></_>
        <_>
          <internalNodes>
            0 -1 55 6.2660698313266039e-04</internalNodes>
          <leafValues>
            1.6308304667472839e-01 -6.3744395971298218e-01</leafValues></_></weakClassifiers></_>
    <!-- stage 7 -->
    <_>
      <maxWeakCount>11</maxWeakCount>
      <stageThreshold>-7.1653896570205688e-01</stageThreshold>
      <weakClassifiers>
        <_>
          <internalNodes>
            0 -1 72 -3.2081198878586292e-04</internalNodes>
          <leafValues>
            5.4397392272949219e-01 -3.5593220591545105e-01</leafValues></_>
        <_>
          <internalNodes>
            0 -1 38 2.2892236709594727e-02</internalNodes>
          <leafValues>
            -2.3430015146732330e-01 5.8373171091079712e-01</leafValues></_>
        <_>
          <internalNodes>
            0 -1 69 1.1716864537447691e-04</internalNodes>
          <leafValues>
            2.1506509184837341e-01 -6.3045591115951538e-01</leafValues></_>
        <_>
          <internalNodes>
            0 -1 2 2.8327785432338715e-02</internalNodes>
          <leafValues>
            -3.5252228379249573e-01 3.8696759939193726e-01</leafValues></_>
        <_>
          <internalNodes>
            0 -1 47 3.0773328035138547e-05</internalNodes>
          <leafValues>
            1.6971899569034576e-01 -6.4359432458877563e-01</leafValues></_>
        <_>
          <internalNodes>
            0 -1 89 -7.7487056842073798e-04</internalNodes>
          <leafValues>
            4.0513396263122559e-01 -2.9237696528434753e-01</leafValues></_>
        <_>
          <internalNodes>
            0 -1 53 -1.0503791272640228e-03</internalNodes>
          <leafValues>
            6.2954878807067871e-01 -1.6268540918827057e-01</leafValues></_>
        <_>
          <internalNodes>
            0 -1 64 -1.0960061335936189e-03</internalNodes>
          <leafValues>
            4.2132729291915894e-01 -2.9799622297286987e-01</leafValues></_>
        <_>
          <internalNodes>
            0 -1 39 -2.5539696216583252e-02</internalNodes>
          <leafValues>
            -7.3404383659362793e-01 1.4569877088069916e-01</leafValues></_>
        <_>
          <internalNodes>
            0 -1 82 -2.4569758679717779e-03</internalNodes>
          <leafValues>
            3.3783361315727234e-01 -3.7549170851707458e-01</leafValues></_>
        <_>
          <internalNodes>
            0 -1 5 -3.9975345134735107e-02</internalNodes>
          <leafValues>
            -7.1053045988082886e-01 2.0059843361377716e-01</leafValues></_></weakClassifiers></_>
    <!-- stage 8 -->
    <_>
      <maxWeakCount>12</maxWeakCount>
      <stageThreshold>-7.6057976484298706e-01</stageThreshold>
      <weakClassifiers>
        <_>
          <internalNodes>
            0 -1 22 5.5491807870566845e-03</internalNodes>
          <leafValues>
            -1.9277107715606689e-01 6.0617762804031372e-01</leafValues></_>
        <_>
          <internalNodes>
            0 -1 93 -2.8156505897641182e-02</internalNodes>
          <leafValues>
            7.7843928337097168e-01 -1.1501827090978622e-01</leafValues></_>
        <_>
          <internalNodes>
            0 -1 92 -2.7056550607085228e-04</internalNodes>
          <leafValues>
            2.8636929392814636e-01 -4.3075382709503174e-01</leafValues></_>
        <_>
          <internalNodes>
            0 -1 84 7.2056157514452934e-03</internalNodes>
          <leafValues>
            -2.7390539646148682e-01 5.5692893266677856e-01</leafValues></_>
        <_>
          <internalNodes>
            0 -1 73 3.5681692679645494e-05</internalNodes>
          <leafValues>
            2.1883082389831543e-01 -5.7390826940536499e-01</leafValues></_>
        <_>
          <internalNodes>
            0 -1 46 -1.1234075063839555e-03</internalNodes>
          <leafValues>
            1.6845081746578217e-01 -6.9209975004196167e-01</leafValues></_>
        <_>
          <internalNodes>
            0 -1 11 -1.2019225955009460e-01</internalNodes>
          <leafValues>
            -7.3618477582931519e-01 1.2576277554035187e-01</leafValues></_>
        <_>
          <internalNodes>
            0 -1 86 -5.1853465265594423e-05</internalNodes>
          <leafValues>
            2.0535282790660858e-01 -5.1072174310684204e-01</leafValues></_>
        <_>
          <internalNodes>
            0 -1 4 -9.3710999935865402e-03</internalNodes>
          <leafValues>
            4.1130030155181885e-01 -2.8307330608367920e-01</leafValues></_>
        <_>
          <internalNodes>
            0 -1 56 -3.3308402635157108e-04</internalNodes>
          <leafValues>
            -4.7366994619369507e-01 2.0717300474643707e-01</leafValues></_>
        <_>
          <internalNodes>
            0 -1 37 -2.7789236046373844e-03</internalNodes>
          <leafValues>
            5.9595435857772827e-01 -1.8127998709678650e-01</leafValues></_>
        <_>
          <internalNodes>
            0 -1 63 3.7234229966998100e-03</internalNodes>
          <leafValues>
            -1.7955294251441956e-01 5.8234238624572754e-01</leafValues></_></weakClassifiers></_>
    <!-- stage 9 -->
    <_>
      <maxWeakCount>14</maxWeakCount>
      <stageThreshold>-6.0646450519561768e-01</stageThreshold>
      <weakClassifiers>
        <_>
          <internalNodes>
            0 -1 34 2.2351266816258430e-03</internalNodes>
          <leafValues>
            -2.9707112908363342e-01 5.2536827325820923e-01</leafValues></_>
        <_>
          <internalNodes>
            0 -1 59 -5.0841539632529020e-05</internalNodes>
          <leafValues>
            -5.1537495851516724e-01 2.9211521148681641e-01</leafValues></_>
        <_>
          <internalNodes>
            0 -1 96 -1.2107950169593096e-03</internalNodes>
          <leafValues>
            3.2358187437057495e-01 -3.6268308758735657e-01</leafValues></_>
        <_>
          <internalNodes>
            0 -1 66 -3.1018827576190233e-04</internalNodes>
          <leafValues>
            1.9671969115734100e-01 -6.1973899602890015e-01</leafValues></_>
        <_>
          <internalNodes>
            0 -1 18 6.4983339980244637e-03</internalNodes>
          <leafValues>
            -2.8862982988357544e-01 3.6003801226615906e-01</leafValues></_>
        <_>
          <internalNodes>
            0 -1 28 -1.3208382006268948e-04</internalNodes>
          <leafValues>
            -5.1023691892623901e-01 2.0684809982776642e-01</leafValues></_>
        <_>
          <internalNodes>
            0 -1 20 5.9070310089737177e-04</internalNodes>
          <leafValues>
            1.2760689854621887e-01 -6.8326884508132935e-01</leafValues></_>
        <_>
          <internalNodes>
            0 -1 67 -1.8799915909767151e-02</internalNodes>
          <leafValues>
            -8.3726978302001953e-01 1.3760362565517426e-01</leafValues></_>
        <_>
          <internalNodes>
            0 -1 24 -1.9770873710513115e-02</internalNodes>
          <leafValues>
            -7.6234519481658936e-01 1.4431200921535492e-01</leafValues></_>
        <_>
          <internalNodes>
            0 -1 27 3.3239601179957390e-03</internalNodes>
          <leafValues>
            1.0586103051900864e-01 -7.1364140510559082e-01</leafValues></_>
        <_>
          <internalNodes>
            0 -1 78 -3.8041032850742340e-02</internalNodes>
          <leafValues>
            -3.7751787900924683e-01 2.6790395379066467e-01</leafValues></_>
        <_>
          <internalNodes>
            0 -1 33 -3.1196107156574726e-03</internalNodes>
          <leafValues>
            6.5371775627136230e-01 -1.6943381726741791e-01</leafValues></_>
        <_>
          <internalNodes>
            0 -1 31 1.8716695194598287e-04</internalNodes>
          <leafValues>
            2.3264065384864807e-01 -5.3856241703033447e-01</leafValues></_>
        <_>
          <internalNodes>
            0 -1 88 -4.6354375081136823e-04</internalNodes>
          <leafValues>
            4.5126506686210632e-01 -2.2724990546703339e-01</leafValues></_></weakClassifiers></_></stages>
  <features>
    <_>
      <rects>
        <_>
          0 11 18 4 -1.</_>
        <_>
          6 11 6 4 3.</_></rects>
      <tilted>0</tilted></_>
    <_>
      <rects>
        <_>
          0 28 10 5 -1.</_>
        <_>
          5 28 5 5 2.</_></rects>
      <tilted>0</tilted></_>
    <_>
      <rects>
        <_>
          0 28 10 6 -1.</_>
        <_>
          5 28 5 6 2.</_></rects>
      <tilted>0</tilted></_>
    <_>
      <rects>
        <_>
          1 11 15 3 -1.</_>
        <_>
          6 11 5 3 3.</_></rects>
      <tilted>0</tilted></_>
    <_>
      <rects>
        <_>
          1 13 6 5 -1.</_>
        <_>
          3 13 2 5 3.</_></rects>
      <tilted>0</tilted></_>
    <_>
      <rects>
        <_>
          1 14 10 12 -1.</_>
        <_>
          1 18 10 4 3.</_></rects>
      <tilted>0</tilted></_>
    <_>
      <rects>
        <_>
          1 25 4 4 -1.</_>
        <_>
          3 25 2 4 2.</_></rects>
      <tilted>0</tilted></_>
    <_>
      <rects>
        <_>
          2 1 6 20 -1.</_>
        <_>
          2 1 3 10 2.</_>
        <_>
          5 11 3 10 2.</_></rects>
      <tilted>0</tilted></_>
    <_>
      <rects>
        <_>
          3 32 12 1 -1.</_>
        <_>
          7 32 4 1 3.</_></rects>
      <tilted>0</tilted></_>
    <_>
      <rects>
        <_>
          4 0 4 20 -1.</_>
        <_>
          4 0 2 10 2.</_>
        <_>
          6 10 2 10 2.</_></rects>
      <tilted>0</tilted></_>
    <_>
      <rects>
        <_>
          4 0 9 2 -1.</_>
        <_>
          7 0 3 2 3.</_></rects>
      <tilted>0</tilted></_>
    <_>
      <rects>
        <_>
          4 12 7 24 -1.</_>
        <_>
          4 20 7 8 3.</_></rects>
      <tilted>0</tilted></_>
    <_>
      <rects>
        <_>
          4 13 6 6 -1.</_>
        <_>
          6 13 2 6 3.</_></rects>
      <tilted>0</tilted></_>
    <_>
      <rects>
        <_>
          4 14 6 4 -1.</_>
        <_>
          6 14 2 4 3.</_></rects>
      <tilted>0</tilted></_>
    <_>
      <rects>
        <_>
          4 15 4 4 -1.</_>
        <_>
          6 15 2 4 2.</_></rects>
      <tilted>0</tilted></_>
    <_>
      <rects>
        <_>
          5 1 4 4 -1.</_>
        <_>
          5 1 2 2 2.</_>
        <_>
          7 3 2 2 2.</_></rects>
      <tilted>0</tilted></_>
    <_>
      <rects>
        <_>
          5 10 2 16 -1.</_>
        <_>
          5 10 1 8 2.</_>
        <_>
          6 18 1 8 2.</_></rects>
      <tilted>0</tilted></_>
    <_>
      <rects>
        <_>
          5 10 5 12 -1.</_>
        <_>
          5 16 5 6 2.</_></rects>
      <tilted>0</tilted></_>
    <_>
      <rects>
        <_>
          5 16 3 6 -1.</_>
        <_>
          6 16 1 6 3.</_></rects>
      <tilted>0</tilted></_>
    <_>
      <rects>
        <_>
          5 22 2 8 -1.</_>
        <_>
          6 22 1 8 2.</_></rects>
      <tilted>0</tilted></_>
    <_>
      <rects>
        <_>
          5 28 2 2 -1.</_>
        <_>
          5 29 2 1 2.</_></rects>
      <tilted>0</tilted></_>
    <_>
      <rects>
        <_>
          5 30 6 3 -1.</_>
        <_>
          5 31 6 1 3.</_></rects>
      <tilted>0</tilted></_>
    <_>
      <rects>
        <_>
          6 8 1 18 -1.</_>
        <_>
          6 14 1 6 3.</_></rects>
      <tilted>0</tilted></_>
    <_>
      <rects>
        <_>
          6 8 2 12 -1.</_>
        <_>
          6 8 1 6 2.</_>
        <_>
          7 14 1 6 2.</_></rects>
      <tilted>0</tilted></_>
    <_>
      <rects>
        <_>
          6 8 6 10 -1.</_>
        <_>
          8 8 2 10 3.</_></rects>
      <tilted>0</tilted></_>
    <_>
      <rects>
        <_>
          6 10 2 8 -1.</_>
        <_>
          6 10 1 4 2.</_>
        <_>
          7 14 1 4 2.</_></rects>
      <tilted>0</tilted></_>
    <_>
      <rects>
        <_>
          6 10 6 11 -1.</_>
        <_>
          8 10 2 11 3.</_></rects>
      <tilted>0</tilted></_>
    <_>
      <rects>
        <_>
          6 10 3 24 -1.</_>
        <_>
          6 22 3 12 2.</_></rects>
      <tilted>0</tilted></_>
    <_>
      <rects>
        <_>
          6 13 1 6 -1.</_>
        <_>
          6 15 1 2 3.</_></rects>
      <tilted>0</tilted></_>
    <_>
      <rects>
        <_>
          6 13 6 5 -1.</_>
        <_>
          9 13 3 5 2.</_></rects>
      <tilted>0</tilted></_>
    <_>
      <rects>
        <_>
          6 13 7 8 -1.</_>
        <_>
          6 17 7 4 2.</_></rects>
      <tilted>0</tilted></_>
    <_>
      <rects>
        <_>
          6 14 1 4 -1.</_>
        <_>
          6 16 1 2 2.</_></rects>
      <tilted>0</tilted></_>
    <_>
      <rects>
        <_>
          6 17 6 4 -1.</_>
        <_>
          9 17 3 4 2.</_></rects>
      <tilted>0</tilted></_>
    <_>
      <rects>
        <_>
          6 22 2 8 -1.</_>
        <_>
          6 22 1 4 2.</_>
        <_>
          7 26 1 4 2.</_></rects>
      <tilted>0</tilted></_>
    <_>
      <rects>
        <_>
          6 27 5 6 -1.</_>
        <_>
          6 29 5 2 3.</_></rects>
      <tilted>0</tilted></_>
    <_>
      <rects>
        <_>
          6 32 4 2 -1.</_>
        <_>
          6 33 4 1 2.</_></rects>
      <tilted>0</tilted></_>
    <_>
      <rects>
        <_>
          6 33 3 2 -1.</_>
        <_>
          6 34 3 1 2.</_></rects>
      <tilted>0</tilted></_>
    <_>
      <rects>
        <_>
          7 0 6 2 -1.</_>
        <_>
          9 0 2 2 3.</_></rects>
      <tilted>0</tilted></_>
    <_>
      <rects>
        <_>
          7 6 5 8 -1.</_>
        <_>
          7 10 5 4 2.</_></rects>
      <tilted>0</tilted></_>
    <_>
      <rects>
        <_>
          7 7 1 26 -1.</_>
        <_>
          7 20 1 13 2.</_></rects>
      <tilted>0</tilted></_>
    <_>
      <rects>
        <_>
          7 8 2 14 -1.</_>
        <_>
          7 8 1 7 2.</_>
        <_>
          8 15 1 7 2.</_></rects>
      <tilted>0</tilted></_>
    <_>
      <rects>
        <_>
          7 10 2 12 -1.</_>
        <_>
          8 10 1 12 2.</_></rects>
      <tilted>0</tilted></_>
    <_>
      <rects>
        <_>
          7 10 2 24 -1.</_>
        <_>
          7 22 2 12 2.</_></rects>
      <tilted>0</tilted></_>
    <_>
      <rects>
        <_>
          7 11 3 10 -1.</_>
        <_>
          7 16 3 5 2.</_></rects>
      <tilted>0</tilted></_>
    <_>
      <rects>
        <_>
          7 12 4 1 -1.</_>
        <_>
          9 12 2 1 2.</_></rects>
      <tilted>0</tilted></_>
    <_>
      <rects>
        <_>
          7 12 4 2 -1.</_>
        <_>
          9 12 2 2 2.</_></rects>
      <tilted>0</tilted></_>
    <_>
      <rects>
        <_>
          7 12 5 6 -1.</_>
        <_>
          7 15 5 3 2.</_></rects>
      <tilted>0</tilted></_>
    <_>
      <rects>
        <_>
          7 13 2 1 -1.</_>
        <_>
          8 13 1 1 2.</_></rects>
      <tilted>0</tilted></_>
    <_>
      <rects>
        <_>
          7 13 2 3 -1.</_>
        <_>
          8 13 1 3 2.</_></rects>
      <tilted>0</tilted></_>
    <_>
      <rects>
        <_>
          7 13 4 2 -1.</_>
        <_>
          9 13 2 2 2.</_></rects>
      <tilted>0</tilted></_>
    <_>
      <rects>
        <_>
          7 13 2 4 -1.</_>
        <_>
          7 15 2 2 2.</_></rects>
      <tilted>0</tilted></_>
    <_>
      <rects>
        <_>
          7 17 2 3 -1.</_>
        <_>
          8 17 1 3 2.</_></rects>
      <tilted>0</tilted></_>
    <_>
      <rects>
        <_>
          7 19 2 3 -1.</_>
        <_>
          8 19 1 3 2.</_></rects>
      <tilted>0</tilted></_>
    <_>
      <rects>
        <_>
          7 23 2 4 -1.</_>
        <_>
          7 23 1 2 2.</_>
        <_>
          8 25 1 2 2.</_></rects>
      <tilted>0</tilted></_>
    <_>
      <rects>
        <_>
          7 27 4 6 -1.</_>
        <_>
          7 29 4 2 3.</_></rects>
      <tilted>0</tilted></_>
    <_>
      <rects>
        <_>
          7 29 1 3 -1.</_>
        <_>
          7 30 1 1 3.</_></rects>
      <tilted>0</tilted></_>
    <_>
      <rects>
        <_>
          7 30 2 4 -1.</_>
        <_>
          7 30 1 2 2.</_>
        <_>
          8 32 1 2 2.</_></rects>
      <tilted>0</tilted></_>
    <_>
      <rects>
        <_>
          7 31 1 2 -1.</_>
        <_>
          7 32 1 1 2.</_></rects>
      <tilted>0</tilted></_>
    <_>
      <rects>
        <_>
          7 31 3 3 -1.</_>
        <_>
          7 32 3 1 3.</_></rects>
      <tilted>0</tilted></_>
    <_>
      <rects>
        <_>
          7 31 4 3 -1.</_>
        <_>
          7 32 4 1 3.</_></rects>
      <tilted>0</tilted></_>
    <_>
      <rects>
        <_>
          7 32 2 2 -1.</_>
        <_>
          7 33 2 1 2.</_></rects>
      <tilted>0</tilted></_>
    <_>
      <rects>
        <_>
          8 0 3 2 -1.</_>
        <_>
          8 1 3 1 2.</_></rects>
      <tilted>0</tilted></_>
    <_>
      <rects>
        <_>
          8 1 2 2 -1.</_>
        <_>
          8 1 1 1 2.</_>
        <_>
          9 2 1 1 2.</_></rects>
      <tilted>0</tilted></_>
    <_>
      <rects>
        <_>
          8 6 2 6 -1.</_>
        <_>
          8 8 2 2 3.</_></rects>
      <tilted>0</tilted></_>
    <_>
      <rects>
        <_>
          8 8 1 8 -1.</_>
        <_>
          8 12 1 4 2.</_></rects>
      <tilted>0</tilted></_>
    <_>
      <rects>
        <_>
          8 11 1 24 -1.</_>
        <_>
          8 23 1 12 2.</_></rects>
      <tilted>0</tilted></_>
    <_>
      <rects>
        <_>
          8 11 4 1 -1.</_>
        <_>
          10 11 2 1 2.</_></rects>
      <tilted>0</tilted></_>
    <_>
      <rects>
        <_>
          8 11 4 12 -1.</_>
        <_>
          10 11 2 12 2.</_></rects>
      <tilted>0</tilted></_>
    <_>
      <rects>
        <_>
          8 12 4 1 -1.</_>
        <_>
          10 12 2 1 2.</_></rects>
      <tilted>0</tilted></_>
    <_>
      <rects>
        <_>
          8 12 3 4 -1.</_>
        <_>
          8 14 3 2 2.</_></rects>
      <tilted>0</tilted></_>
    <_>
      <rects>
        <_>
          8 15 4 4 -1.</_>
        <_>
          10 15 2 4 2.</_></rects>
      <tilted>0</tilted></_>
    <_>
      <rects>
        <_>
          8 28 1 6 -1.</_>
        <_>
          8 30 1 2 3.</_></rects>
      <tilted>0</tilted></_>
    <_>
      <rects>
        <_>
          8 30 4 1 -1.</_>
        <_>
          10 30 2 1 2.</_></rects>
      <tilted>0</tilted></_>
    <_>
      <rects>
        <_>
          8 31 2 2 -1.</_>
        <_>
          9 31 1 2 2.</_></rects>
      <tilted>0</tilted></_>
    <_>
      <rects>
        <_>
          8 31 2 2 -1.</_>
        <_>
          8 32 2 1 2.</_></rects>
      <tilted>0</tilted></_>
    <_>
      <rects>
        <_>
          8 32 1 4 -1.</_>
        <_>
          8 34 1 2 2.</_></rects>
      <tilted>0</tilted></_>
    <_>
      <rects>
        <_>
          8 32 2 4 -1.</_>
        <_>
          8 34 2 2 2.</_></rects>
      <tilted>0</tilted></_>
    <_>
      <rects>
        <_>
          9 1 2 4 -1.</_>
        <_>
          9 1 1 2 2.</_>
        <_>
          10 3 1 2 2.</_></rects>
      <tilted>0</tilted></_>
    <_>
      <rects>
        <_>
          9 4 3 30 -1.</_>
        <_>
          9 19 3 15 2.</_></rects>
      <tilted>0</tilted></_>
    <_>
      <rects>
        <_>
          9 10 2 12 -1.</_>
        <_>
          9 16 2 6 2.</_></rects>
      <tilted>0</tilted></_>
    <_>
      <rects>
        <_>
          9 11 2 8 -1.</_>
        <_>
          9 15 2 4 2.</_></rects>
      <tilted>0</tilted></_>
    <_>
      <rects>
        <_>
          9 13 2 18 -1.</_>
        <_>
          9 19 2 6 3.</_></rects>
      <tilted>0</tilted></_>
    <_>
      <rects>
        <_>
          9 14 2 6 -1.</_>
        <_>
          9 17 2 3 2.</_></rects>
      <tilted>0</tilted></_>
    <_>
      <rects>
        <_>
          9 15 2 20 -1.</_>
        <_>
          9 25 2 10 2.</_></rects>
      <tilted>0</tilted></_>
    <_>
      <rects>
        <_>
          9 27 6 5 -1.</_>
        <_>
          11 27 2 5 3.</_></rects>
      <tilted>0</tilted></_>
    <_>
      <rects>
        <_>
          9 30 4 2 -1.</_>
        <_>
          11 30 2 2 2.</_></rects>
      <tilted>0</tilted></_>
    <_>
      <rects>
        <_>
          9 31 2 1 -1.</_>
        <_>
          10 31 1 1 2.</_></rects>
      <tilted>0</tilted></_>
    <_>
      <rects>
        <_>
          9 31 2 2 -1.</_>
        <_>
          10 31 1 2 2.</_></rects>
      <tilted>0</tilted></_>
    <_>
      <rects>
        <_>
          10 1 2 4 -1.</_>
        <_>
          10 1 1 2 2.</_>
        <_>
          11 3 1 2 2.</_></rects>
      <tilted>0</tilted></_>
    <_>
      <rects>
        <_>
          10 1 4 4 -1.</_>
        <_>
          10 1 2 2 2.</_>
        <_>
          12 3 2 2 2.</_></rects>
      <tilted>0</tilted></_>
    <_>
      <rects>
        <_>
          10 8 4 13 -1.</_>
        <_>
          12 8 2 13 2.</_></rects>
      <tilted>0</tilted></_>
    <_>
      <rects>
        <_>
          10 12 2 1 -1.</_>
        <_>
          11 12 1 1 2.</_></rects>
      <tilted>0</tilted></_>
    <_>
      <rects>
        <_>
          10 31 2 2 -1.</_>
        <_>
          11 31 1 2 2.</_></rects>
      <tilted>0</tilted></_>
    <_>
      <rects>
        <_>
          11 0 4 20 -1.</_>
        <_>
          11 0 2 10 2.</_>
        <_>
          13 10 2 10 2.</_></rects>
      <tilted>0</tilted></_>
    <_>
      <rects>
        <_>
          11 15 1 8 -1.</_>
        <_>
          11 19 1 4 2.</_></rects>
      <tilted>0</tilted></_>
    <_>
      <rects>
        <_>
          11 16 2 3 -1.</_>
        <_>
          12 16 1 3 2.</_></rects>
      <tilted>0</tilted></_>
    <_>
      <rects>
        <_>
          11 17 1 6 -1.</_>
        <_>
          11 20 1 3 2.</_></rects>
      <tilted>0</tilted></_>
    <_>
      <rects>
        <_>
          11 29 2 2 -1.</_>
        <_>
          12 29 1 2 2.</_></rects>
      <tilted>0</tilted></_>
    <_>
      <rects>
        <_>
          11 30 2 1 -1.</_>
        <_>
          12 30 1 1 2.</_></rects>
      <tilted>0</tilted></_>
    <_>
      <rects>
        <_>
          12 13 2 8 -1.</_>
        <_>
          12 13 1 4 2.</_>
        <_>
          13 17 1 4 2.</_></rects>
      <tilted>0</tilted></_></features></cascade>
</opencv_storage>
