<?xml version="1.0"?>
<opencv_storage>
<stage6>
  <maxWeakCount>10</maxWeakCount>
  <stageThreshold>-1.0560768842697144e+00</stageThreshold>
  <weakClassifiers>
    <_>
      <internalNodes>
        0 -1 159307 -2.4750437587499619e-03</internalNodes>
      <leafValues>
        5.6422764062881470e-01 -4.1276594996452332e-01</leafValues></_>
    <_>
      <internalNodes>
        0 -1 153494 -2.2339164279401302e-03</internalNodes>
      <leafValues>
        5.0536233186721802e-01 -3.5572358965873718e-01</leafValues></_>
    <_>
      <internalNodes>
        0 -1 92233 8.0078504979610443e-03</internalNodes>
      <leafValues>
        -3.3174952864646912e-01 4.5789596438407898e-01</leafValues></_>
    <_>
      <internalNodes>
        0 -1 135724 -2.1846075833309442e-04</internalNodes>
      <leafValues>
        2.3159076273441315e-01 -6.4789897203445435e-01</leafValues></_>
    <_>
      <internalNodes>
        0 -1 168330 -2.5052705779671669e-02</internalNodes>
      <leafValues>
        5.5329722166061401e-01 -2.4672558903694153e-01</leafValues></_>
    <_>
      <internalNodes>
        0 -1 135729 -4.5080352574586868e-03</internalNodes>
      <leafValues>
        -7.6892995834350586e-01 1.4848336577415466e-01</leafValues></_>
    <_>
      <internalNodes>
        0 -1 136196 -5.0658057443797588e-04</internalNodes>
      <leafValues>
        2.0339983701705933e-01 -5.8877301216125488e-01</leafValues></_>
    <_>
      <internalNodes>
        0 -1 154251 -3.3666717354208231e-04</internalNodes>
      <leafValues>
        4.9158957600593567e-01 -2.7477005124092102e-01</leafValues></_>
    <_>
      <internalNodes>
        0 -1 160111 -5.9153605252504349e-03</internalNodes>
      <leafValues>
        3.2325863838195801e-01 -3.6572003364562988e-01</leafValues></_>
    <_>
      <internalNodes>
        0 -1 140870 6.2660698313266039e-04</internalNodes>
      <leafValues>
        1.6308304667472839e-01 -6.3744395971298218e-01</leafValues></_></weakClassifiers></stage6>
</opencv_storage>
