<?xml version="1.0"?>
<opencv_storage>
<stage0>
  <maxWeakCount>7</maxWeakCount>
  <stageThreshold>-1.1572978496551514e+00</stageThreshold>
  <weakClassifiers>
    <_>
      <internalNodes>
        0 -1 91098 9.3015525490045547e-03</internalNodes>
      <leafValues>
        -5.3846156597137451e-01 7.7695167064666748e-01</leafValues></_>
    <_>
      <internalNodes>
        0 -1 141208 -2.5289991754107177e-04</internalNodes>
      <leafValues>
        5.8163595199584961e-01 -6.6304087638854980e-01</leafValues></_>
    <_>
      <internalNodes>
        0 -1 135349 -3.6936658434569836e-03</internalNodes>
      <leafValues>
        4.0315166115760803e-01 -7.0064586400985718e-01</leafValues></_>
    <_>
      <internalNodes>
        0 -1 134712 -1.5178790781646967e-03</internalNodes>
      <leafValues>
        4.0985321998596191e-01 -5.9919017553329468e-01</leafValues></_>
    <_>
      <internalNodes>
        0 -1 128449 -1.1704571079462767e-03</internalNodes>
      <leafValues>
        7.0827251672744751e-01 -3.6146563291549683e-01</leafValues></_>
    <_>
      <internalNodes>
        0 -1 148248 -3.0900049023330212e-04</internalNodes>
      <leafValues>
        3.8124006986618042e-01 -6.1609411239624023e-01</leafValues></_>
    <_>
      <internalNodes>
        0 -1 134799 -4.2439654469490051e-02</internalNodes>
      <leafValues>
        -8.8630443811416626e-01 3.1522282958030701e-01</leafValues></_></weakClassifiers></stage0>
</opencv_storage>
