<?xml version="1.0"?>
<opencv_storage>
<stage4>
  <maxWeakCount>10</maxWeakCount>
  <stageThreshold>-8.6913764476776123e-01</stageThreshold>
  <weakClassifiers>
    <_>
      <internalNodes>
        0 -1 44217 2.3881591856479645e-02</internalNodes>
      <leafValues>
        -1.8518517911434174e-01 7.3033708333969116e-01</leafValues></_>
    <_>
      <internalNodes>
        0 -1 21506 3.3599317073822021e-02</internalNodes>
      <leafValues>
        -2.5867494940757751e-01 6.8918454647064209e-01</leafValues></_>
    <_>
      <internalNodes>
        0 -1 153424 -6.3298699387814850e-05</internalNodes>
      <leafValues>
        3.0985680222511292e-01 -5.8585768938064575e-01</leafValues></_>
    <_>
      <internalNodes>
        0 -1 149534 -7.3597314767539501e-03</internalNodes>
      <leafValues>
        -8.7637454271316528e-01 1.6464358568191528e-01</leafValues></_>
    <_>
      <internalNodes>
        0 -1 179535 -7.5434253085404634e-04</internalNodes>
      <leafValues>
        4.2565569281578064e-01 -3.8812503218650818e-01</leafValues></_>
    <_>
      <internalNodes>
        0 -1 111187 -1.9901380874216557e-03</internalNodes>
      <leafValues>
        4.7782093286514282e-01 -2.8783878684043884e-01</leafValues></_>
    <_>
      <internalNodes>
        0 -1 160848 -1.6467045992612839e-02</internalNodes>
      <leafValues>
        -6.0296219587326050e-01 2.3060745000839233e-01</leafValues></_>
    <_>
      <internalNodes>
        0 -1 136197 5.0240807468071580e-04</internalNodes>
      <leafValues>
        1.8317928910255432e-01 -7.9240477085113525e-01</leafValues></_>
    <_>
      <internalNodes>
        0 -1 141144 3.0834817152936012e-05</internalNodes>
      <leafValues>
        -5.3124016523361206e-01 2.2394362092018127e-01</leafValues></_>
    <_>
      <internalNodes>
        0 -1 141112 -4.1035877075046301e-05</internalNodes>
      <leafValues>
        2.4409443140029907e-01 -5.3455513715744019e-01</leafValues></_></weakClassifiers></stage4>
</opencv_storage>
