<?xml version="1.0"?>
<opencv_storage>
<stage3>
  <maxWeakCount>9</maxWeakCount>
  <stageThreshold>-7.7396702766418457e-01</stageThreshold>
  <weakClassifiers>
    <_>
      <internalNodes>
        0 -1 153038 5.3544924594461918e-04</internalNodes>
      <leafValues>
        -4.4939270615577698e-01 5.9867328405380249e-01</leafValues></_>
    <_>
      <internalNodes>
        0 -1 33361 4.5233964920043945e-02</internalNodes>
      <leafValues>
        -3.1223067641258240e-01 7.1284109354019165e-01</leafValues></_>
    <_>
      <internalNodes>
        0 -1 137783 -9.9518848583102226e-04</internalNodes>
      <leafValues>
        4.3309402465820312e-01 -4.4257164001464844e-01</leafValues></_>
    <_>
      <internalNodes>
        0 -1 122804 3.6925605963915586e-03</internalNodes>
      <leafValues>
        1.5526923537254333e-01 -9.0806180238723755e-01</leafValues></_>
    <_>
      <internalNodes>
        0 -1 153507 -5.1575582474470139e-03</internalNodes>
      <leafValues>
        5.1450312137603760e-01 -2.9766076803207397e-01</leafValues></_>
    <_>
      <internalNodes>
        0 -1 186469 1.7691634129732847e-03</internalNodes>
      <leafValues>
        -2.8125342726707458e-01 5.2663564682006836e-01</leafValues></_>
    <_>
      <internalNodes>
        0 -1 105766 -4.8238303512334824e-02</internalNodes>
      <leafValues>
        -9.1785466670989990e-01 1.3611561059951782e-01</leafValues></_>
    <_>
      <internalNodes>
        0 -1 142042 3.3256030292250216e-04</internalNodes>
      <leafValues>
        -2.7909836173057556e-01 5.8990675210952759e-01</leafValues></_>
    <_>
      <internalNodes>
        0 -1 147761 1.3254221528768539e-02</internalNodes>
      <leafValues>
        1.9487094879150391e-01 -9.3241190910339355e-01</leafValues></_></weakClassifiers></stage3>
</opencv_storage>
